digraph Tree {
node [shape=box] ;
0 [label="distance <= 3.0217\ngini = 0.2939\nsamples = 14303\nvalue = [11811, 207, 2216, 69]"] ;
1 [label="length <= 1.245\ngini = 0.4724\nsamples = 2479\nvalue = [594, 145, 1693, 47]"] ;
0 -> 1 [labeldistance=2.5, labelangle=45, headlabel="True"] ;
2 [label="gini = 0.2983\nsamples = 576\nvalue = [479, 20, 38, 39]"] ;
1 -> 2 ;
3 [label="gini = 0.2357\nsamples = 1903\nvalue = [115, 125, 1655, 8]"] ;
1 -> 3 ;
4 [label="distance <= 4.3236\ngini = 0.098\nsamples = 11824\nvalue = [11217, 62, 523, 22]"] ;
0 -> 4 [labeldistance=2.5, labelangle=-45, headlabel="False"] ;
5 [label="gini = 0.3579\nsamples = 1522\nvalue = [1184, 37, 290, 11]"] ;
4 -> 5 ;
6 [label="gini = 0.051\nsamples = 10302\nvalue = [10033, 25, 233, 11]"] ;
4 -> 6 ;
}