digraph Tree {
node [shape=box] ;
0 [label="X[14] <= 2.45\ngini = 0.2466\nsamples = 2761\nvalue = [2370, 24, 354, 13]"] ;
1 [label="X[2] <= 2.3841\ngini = 0.3637\nsamples = 379\nvalue = [69, 14, 294, 2]"] ;
0 -> 1 [labeldistance=2.5, labelangle=45, headlabel="True"] ;
2 [label="X[6] <= 1.9007\ngini = 0.1369\nsamples = 69\nvalue = [64, 3, 0, 2]"] ;
1 -> 2 ;
3 [label="gini = 0.0\nsamples = 3\nvalue = [0, 3, 0, 0]"] ;
2 -> 3 ;
4 [label="X[13] <= 2.62\ngini = 0.0588\nsamples = 66\nvalue = [64, 0, 0, 2]"] ;
2 -> 4 ;
5 [label="gini = 0.0\nsamples = 64\nvalue = [64, 0, 0, 0]"] ;
4 -> 5 ;
6 [label="gini = 0.0\nsamples = 2\nvalue = [0, 0, 0, 2]"] ;
4 -> 6 ;
7 [label="X[0] <= 216.5\ngini = 0.099\nsamples = 310\nvalue = [5, 11, 294, 0]"] ;
1 -> 7 ;
8 [label="gini = 0.0\nsamples = 5\nvalue = [0, 5, 0, 0]"] ;
7 -> 8 ;
9 [label="X[4] <= 75.5\ngini = 0.0702\nsamples = 305\nvalue = [5, 6, 294, 0]"] ;
7 -> 9 ;
10 [label="X[4] <= 5.0\ngini = 0.0396\nsamples = 298\nvalue = [4, 2, 292, 0]"] ;
9 -> 10 ;
11 [label="gini = 0.0\nsamples = 2\nvalue = [2, 0, 0, 0]"] ;
10 -> 11 ;
12 [label="X[10] <= 1.154\ngini = 0.0268\nsamples = 296\nvalue = [2, 2, 292, 0]"] ;
10 -> 12 ;
13 [label="X[1] <= 1.1723\ngini = 0.0202\nsamples = 295\nvalue = [1, 2, 292, 0]"] ;
12 -> 13 ;
14 [label="gini = 0.0\nsamples = 1\nvalue = [0, 1, 0, 0]"] ;
13 -> 14 ;
15 [label="X[11] <= -0.4538\ngini = 0.0135\nsamples = 294\nvalue = [1, 1, 292, 0]"] ;
13 -> 15 ;
16 [label="X[4] <= 52.5\ngini = 0.0068\nsamples = 291\nvalue = [0, 1, 290, 0]"] ;
15 -> 16 ;
17 [label="gini = 0.0\nsamples = 287\nvalue = [0, 0, 287, 0]"] ;
16 -> 17 ;
18 [label="X[6] <= 11.008\ngini = 0.375\nsamples = 4\nvalue = [0, 1, 3, 0]"] ;
16 -> 18 ;
19 [label="gini = 0.0\nsamples = 3\nvalue = [0, 0, 3, 0]"] ;
18 -> 19 ;
20 [label="gini = 0.0\nsamples = 1\nvalue = [0, 1, 0, 0]"] ;
18 -> 20 ;
21 [label="X[5] <= 0.0008\ngini = 0.4444\nsamples = 3\nvalue = [1, 0, 2, 0]"] ;
15 -> 21 ;
22 [label="gini = 0.0\nsamples = 1\nvalue = [1, 0, 0, 0]"] ;
21 -> 22 ;
23 [label="gini = 0.0\nsamples = 2\nvalue = [0, 0, 2, 0]"] ;
21 -> 23 ;
24 [label="gini = 0.0\nsamples = 1\nvalue = [1, 0, 0, 0]"] ;
12 -> 24 ;
25 [label="X[9] <= -6.143\ngini = 0.5714\nsamples = 7\nvalue = [1, 4, 2, 0]"] ;
9 -> 25 ;
26 [label="gini = 0.0\nsamples = 3\nvalue = [0, 3, 0, 0]"] ;
25 -> 26 ;
27 [label="X[12] <= 2.1\ngini = 0.625\nsamples = 4\nvalue = [1, 1, 2, 0]"] ;
25 -> 27 ;
28 [label="X[5] <= 0.0103\ngini = 0.5\nsamples = 2\nvalue = [1, 1, 0, 0]"] ;
27 -> 28 ;
29 [label="gini = 0.0\nsamples = 1\nvalue = [0, 1, 0, 0]"] ;
28 -> 29 ;
30 [label="gini = 0.0\nsamples = 1\nvalue = [1, 0, 0, 0]"] ;
28 -> 30 ;
31 [label="gini = 0.0\nsamples = 2\nvalue = [0, 0, 2, 0]"] ;
27 -> 31 ;
32 [label="X[1] <= 4.3542\ngini = 0.0662\nsamples = 2382\nvalue = [2301, 10, 60, 11]"] ;
0 -> 32 [labeldistance=2.5, labelangle=-45, headlabel="False"] ;
33 [label="X[2] <= 2.5084\ngini = 0.2911\nsamples = 457\nvalue = [380, 9, 59, 9]"] ;
32 -> 33 ;
34 [label="X[2] <= 1.5226\ngini = 0.1344\nsamples = 354\nvalue = [329, 5, 12, 8]"] ;
33 -> 34 ;
35 [label="X[0] <= 4119.0\ngini = 0.0822\nsamples = 307\nvalue = [294, 3, 3, 7]"] ;
34 -> 35 ;
36 [label="X[7] <= -2.1944\ngini = 0.0431\nsamples = 274\nvalue = [268, 3, 3, 0]"] ;
35 -> 36 ;
37 [label="gini = 0.0\nsamples = 1\nvalue = [0, 1, 0, 0]"] ;
36 -> 37 ;
38 [label="X[1] <= 4.3517\ngini = 0.0361\nsamples = 273\nvalue = [268, 2, 3, 0]"] ;
36 -> 38 ;
39 [label="X[0] <= 208.0\ngini = 0.0291\nsamples = 272\nvalue = [268, 2, 2, 0]"] ;
38 -> 39 ;
40 [label="X[9] <= -2.7841\ngini = 0.5\nsamples = 2\nvalue = [1, 1, 0, 0]"] ;
39 -> 40 ;
41 [label="gini = 0.0\nsamples = 1\nvalue = [1, 0, 0, 0]"] ;
40 -> 41 ;
42 [label="gini = 0.0\nsamples = 1\nvalue = [0, 1, 0, 0]"] ;
40 -> 42 ;
43 [label="X[6] <= 15.8792\ngini = 0.022\nsamples = 270\nvalue = [267, 1, 2, 0]"] ;
39 -> 43 ;
44 [label="X[9] <= -15.191\ngini = 0.0148\nsamples = 268\nvalue = [266, 1, 1, 0]"] ;
43 -> 44 ;
45 [label="X[15] <= 4.04\ngini = 0.2449\nsamples = 7\nvalue = [6, 1, 0, 0]"] ;
44 -> 45 ;
46 [label="gini = 0.0\nsamples = 6\nvalue = [6, 0, 0, 0]"] ;
45 -> 46 ;
47 [label="gini = 0.0\nsamples = 1\nvalue = [0, 1, 0, 0]"] ;
45 -> 47 ;
48 [label="X[4] <= 6.5\ngini = 0.0076\nsamples = 261\nvalue = [260, 0, 1, 0]"] ;
44 -> 48 ;
49 [label="gini = 0.0\nsamples = 222\nvalue = [222, 0, 0, 0]"] ;
48 -> 49 ;
50 [label="X[3] <= 0.087\ngini = 0.05\nsamples = 39\nvalue = [38, 0, 1, 0]"] ;
48 -> 50 ;
51 [label="X[0] <= 1511.5\ngini = 0.5\nsamples = 2\nvalue = [1, 0, 1, 0]"] ;
50 -> 51 ;
52 [label="gini = 0.0\nsamples = 1\nvalue = [1, 0, 0, 0]"] ;
51 -> 52 ;
53 [label="gini = 0.0\nsamples = 1\nvalue = [0, 0, 1, 0]"] ;
51 -> 53 ;
54 [label="gini = 0.0\nsamples = 37\nvalue = [37, 0, 0, 0]"] ;
50 -> 54 ;
55 [label="X[4] <= 3.5\ngini = 0.5\nsamples = 2\nvalue = [1, 0, 1, 0]"] ;
43 -> 55 ;
56 [label="gini = 0.0\nsamples = 1\nvalue = [1, 0, 0, 0]"] ;
55 -> 56 ;
57 [label="gini = 0.0\nsamples = 1\nvalue = [0, 0, 1, 0]"] ;
55 -> 57 ;
58 [label="gini = 0.0\nsamples = 1\nvalue = [0, 0, 1, 0]"] ;
38 -> 58 ;
59 [label="X[0] <= 4167.0\ngini = 0.3343\nsamples = 33\nvalue = [26, 0, 0, 7]"] ;
35 -> 59 ;
60 [label="gini = 0.0\nsamples = 7\nvalue = [0, 0, 0, 7]"] ;
59 -> 60 ;
61 [label="gini = 0.0\nsamples = 26\nvalue = [26, 0, 0, 0]"] ;
59 -> 61 ;
62 [label="X[5] <= 0.001\ngini = 0.4065\nsamples = 47\nvalue = [35, 2, 9, 1]"] ;
34 -> 62 ;
63 [label="X[1] <= 3.9763\ngini = 0.5485\nsamples = 19\nvalue = [9, 1, 9, 0]"] ;
62 -> 63 ;
64 [label="X[4] <= 29.0\ngini = 0.1975\nsamples = 9\nvalue = [8, 1, 0, 0]"] ;
63 -> 64 ;
65 [label="gini = 0.0\nsamples = 8\nvalue = [8, 0, 0, 0]"] ;
64 -> 65 ;
66 [label="gini = 0.0\nsamples = 1\nvalue = [0, 1, 0, 0]"] ;
64 -> 66 ;
67 [label="X[5] <= 0.0\ngini = 0.18\nsamples = 10\nvalue = [1, 0, 9, 0]"] ;
63 -> 67 ;
68 [label="gini = 0.0\nsamples = 1\nvalue = [1, 0, 0, 0]"] ;
67 -> 68 ;
69 [label="gini = 0.0\nsamples = 9\nvalue = [0, 0, 9, 0]"] ;
67 -> 69 ;
70 [label="X[11] <= -8.6442\ngini = 0.1352\nsamples = 28\nvalue = [26, 1, 0, 1]"] ;
62 -> 70 ;
71 [label="X[3] <= 0.4801\ngini = 0.5\nsamples = 2\nvalue = [0, 1, 0, 1]"] ;
70 -> 71 ;
72 [label="gini = 0.0\nsamples = 1\nvalue = [0, 0, 0, 1]"] ;
71 -> 72 ;
73 [label="gini = 0.0\nsamples = 1\nvalue = [0, 1, 0, 0]"] ;
71 -> 73 ;
74 [label="gini = 0.0\nsamples = 26\nvalue = [26, 0, 0, 0]"] ;
70 -> 74 ;
75 [label="X[8] <= -3.3211\ngini = 0.545\nsamples = 103\nvalue = [51, 4, 47, 1]"] ;
33 -> 75 ;
76 [label="X[6] <= 9.94\ngini = 0.4468\nsamples = 64\nvalue = [15, 4, 45, 0]"] ;
75 -> 76 ;
77 [label="X[1] <= 2.8418\ngini = 0.56\nsamples = 20\nvalue = [12, 4, 4, 0]"] ;
76 -> 77 ;
78 [label="X[2] <= 3.3495\ngini = 0.32\nsamples = 5\nvalue = [0, 1, 4, 0]"] ;
77 -> 78 ;
79 [label="gini = 0.0\nsamples = 1\nvalue = [0, 1, 0, 0]"] ;
78 -> 79 ;
80 [label="gini = 0.0\nsamples = 4\nvalue = [0, 0, 4, 0]"] ;
78 -> 80 ;
81 [label="X[7] <= -1.1352\ngini = 0.32\nsamples = 15\nvalue = [12, 3, 0, 0]"] ;
77 -> 81 ;
82 [label="X[12] <= 4.345\ngini = 0.375\nsamples = 4\nvalue = [1, 3, 0, 0]"] ;
81 -> 82 ;
83 [label="gini = 0.0\nsamples = 3\nvalue = [0, 3, 0, 0]"] ;
82 -> 83 ;
84 [label="gini = 0.0\nsamples = 1\nvalue = [1, 0, 0, 0]"] ;
82 -> 84 ;
85 [label="gini = 0.0\nsamples = 11\nvalue = [11, 0, 0, 0]"] ;
81 -> 85 ;
86 [label="X[10] <= -5.0233\ngini = 0.1271\nsamples = 44\nvalue = [3, 0, 41, 0]"] ;
76 -> 86 ;
87 [label="gini = 0.0\nsamples = 2\nvalue = [2, 0, 0, 0]"] ;
86 -> 87 ;
88 [label="X[4] <= 4.0\ngini = 0.0465\nsamples = 42\nvalue = [1, 0, 41, 0]"] ;
86 -> 88 ;
89 [label="gini = 0.0\nsamples = 1\nvalue = [1, 0, 0, 0]"] ;
88 -> 89 ;
90 [label="gini = 0.0\nsamples = 41\nvalue = [0, 0, 41, 0]"] ;
88 -> 90 ;
91 [label="X[15] <= 2.42\ngini = 0.1446\nsamples = 39\nvalue = [36, 0, 2, 1]"] ;
75 -> 91 ;
92 [label="gini = 0.0\nsamples = 1\nvalue = [0, 0, 0, 1]"] ;
91 -> 92 ;
93 [label="X[13] <= 2.94\ngini = 0.0997\nsamples = 38\nvalue = [36, 0, 2, 0]"] ;
91 -> 93 ;
94 [label="X[1] <= 2.7323\ngini = 0.5\nsamples = 4\nvalue = [2, 0, 2, 0]"] ;
93 -> 94 ;
95 [label="gini = 0.0\nsamples = 2\nvalue = [2, 0, 0, 0]"] ;
94 -> 95 ;
96 [label="gini = 0.0\nsamples = 2\nvalue = [0, 0, 2, 0]"] ;
94 -> 96 ;
97 [label="gini = 0.0\nsamples = 34\nvalue = [34, 0, 0, 0]"] ;
93 -> 97 ;
98 [label="X[0] <= 4140.0\ngini = 0.0041\nsamples = 1925\nvalue = [1921, 1, 1, 2]"] ;
32 -> 98 ;
99 [label="X[13] <= 4.525\ngini = 0.0022\nsamples = 1824\nvalue = [1822, 1, 1, 0]"] ;
98 -> 99 ;
100 [label="X[0] <= 298.5\ngini = 0.0444\nsamples = 44\nvalue = [43, 1, 0, 0]"] ;
99 -> 100 ;
101 [label="gini = 0.0\nsamples = 1\nvalue = [0, 1, 0, 0]"] ;
100 -> 101 ;
102 [label="gini = 0.0\nsamples = 43\nvalue = [43, 0, 0, 0]"] ;
100 -> 102 ;
103 [label="X[6] <= 13.5293\ngini = 0.0011\nsamples = 1780\nvalue = [1779, 0, 1, 0]"] ;
99 -> 103 ;
104 [label="gini = 0.0\nsamples = 1494\nvalue = [1494, 0, 0, 0]"] ;
103 -> 104 ;
105 [label="X[6] <= 13.535\ngini = 0.007\nsamples = 286\nvalue = [285, 0, 1, 0]"] ;
103 -> 105 ;
106 [label="gini = 0.0\nsamples = 1\nvalue = [0, 0, 1, 0]"] ;
105 -> 106 ;
107 [label="gini = 0.0\nsamples = 285\nvalue = [285, 0, 0, 0]"] ;
105 -> 107 ;
108 [label="X[6] <= 9.124\ngini = 0.0388\nsamples = 101\nvalue = [99, 0, 0, 2]"] ;
98 -> 108 ;
109 [label="gini = 0.0\nsamples = 99\nvalue = [99, 0, 0, 0]"] ;
108 -> 109 ;
110 [label="gini = 0.0\nsamples = 2\nvalue = [0, 0, 0, 2]"] ;
108 -> 110 ;
}